FANN_FLO_2.1
num_layers=4
learning_rate=0.700000
connection_rate=1.000000
network_type=0
learning_momentum=0.000000
training_algorithm=2
train_error_function=1
train_stop_function=0
cascade_output_change_fraction=0.010000
quickprop_decay=-0.000100
quickprop_mu=1.750000
rprop_increase_factor=1.200000
rprop_decrease_factor=0.500000
rprop_delta_min=0.000000
rprop_delta_max=50.000000
rprop_delta_zero=0.100000
cascade_output_stagnation_epochs=12
cascade_candidate_change_fraction=0.010000
cascade_candidate_stagnation_epochs=12
cascade_max_out_epochs=150
cascade_min_out_epochs=50
cascade_max_cand_epochs=150
cascade_min_cand_epochs=50
cascade_num_candidate_groups=2
bit_fail_limit=3.49999994039535522461e-01
cascade_candidate_limit=1.00000000000000000000e+03
cascade_weight_multiplier=4.00000005960464477539e-01
cascade_activation_functions_count=10
cascade_activation_functions=3 5 7 8 10 11 14 15 16 17
cascade_activation_steepnesses_count=4
cascade_activation_steepnesses=2.50000000000000000000e-01 5.00000000000000000000e-01 7.50000000000000000000e-01 1.00000000000000000000e+00
layer_sizes=9 13 9 2
scale_included=0
neurons (num_inputs, activation_function, activation_steepness)=(0, 0, 0.00000000000000000000e+00) (0, 0, 0.00000000000000000000e+00) (0, 0, 0.00000000000000000000e+00) (0, 0, 0.00000000000000000000e+00) (0, 0, 0.00000000000000000000e+00) (0, 0, 0.00000000000000000000e+00) (0, 0, 0.00000000000000000000e+00) (0, 0, 0.00000000000000000000e+00) (0, 0, 0.00000000000000000000e+00) (9, 3, 5.00000000000000000000e-01) (9, 3, 5.00000000000000000000e-01) (9, 3, 5.00000000000000000000e-01) (9, 3, 5.00000000000000000000e-01) (9, 3, 5.00000000000000000000e-01) (9, 3, 5.00000000000000000000e-01) (9, 3, 5.00000000000000000000e-01) (9, 3, 5.00000000000000000000e-01) (9, 3, 5.00000000000000000000e-01) (9, 3, 5.00000000000000000000e-01) (9, 3, 5.00000000000000000000e-01) (9, 3, 5.00000000000000000000e-01) (0, 3, 0.00000000000000000000e+00) (13, 3, 5.00000000000000000000e-01) (13, 3, 5.00000000000000000000e-01) (13, 3, 5.00000000000000000000e-01) (13, 3, 5.00000000000000000000e-01) (13, 3, 5.00000000000000000000e-01) (13, 3, 5.00000000000000000000e-01) (13, 3, 5.00000000000000000000e-01) (13, 3, 5.00000000000000000000e-01) (0, 3, 0.00000000000000000000e+00) (9, 3, 5.00000000000000000000e-01) (0, 3, 0.00000000000000000000e+00)
connections (connected_to_neuron, weight)=(0, -5.01738190650939941406e-01) (1, -8.64464491605758666992e-02) (2, -9.45538654923439025879e-02) (3, -2.31596335768699645996e-01) (4, 1.06644578278064727783e-01) (5, -1.39835047721862792969e+00) (6, -4.92775171995162963867e-01) (7, -4.99158203601837158203e-01) (8, 1.24970450997352600098e-01) (0, -6.72734498977661132812e-01) (1, -1.80226653814315795898e-01) (2, 1.52855977416038513184e-01) (3, -3.68513286113739013672e-01) (4, 2.00029343366622924805e-01) (5, -1.89146935939788818359e+00) (6, -6.16131007671356201172e-01) (7, -3.69994729757308959961e-01) (8, 4.45665180683135986328e-01) (0, -5.42030215263366699219e-01) (1, -1.30044803023338317871e-01) (2, 1.04808516800403594971e-01) (3, -3.42485129833221435547e-01) (4, 7.52110406756401062012e-02) (5, -1.60623621940612792969e+00) (6, -3.98640275001525878906e-01) (7, -4.00726616382598876953e-01) (8, 1.90622508525848388672e-01) (0, -5.80209255218505859375e-01) (1, -5.83731159567832946777e-02) (2, 7.63101726770401000977e-02) (3, -3.80410641431808471680e-01) (4, 2.85683155059814453125e-01) (5, -2.03603196144104003906e+00) (6, -5.47377049922943115234e-01) (7, -4.78875815868377685547e-01) (8, 5.22259116172790527344e-01) (0, -6.47866487503051757812e-01) (1, -6.96979910135269165039e-02) (2, 1.70961752533912658691e-01) (3, -2.54862099885940551758e-01) (4, 1.37561514973640441895e-01) (5, -1.80477106571197509766e+00) (6, -4.89059537649154663086e-01) (7, -4.41477388143539428711e-01) (8, 2.90079414844512939453e-01) (0, -6.91854476928710937500e-01) (1, -1.41610980033874511719e-01) (2, -3.18182893097400665283e-02) (3, -2.68720895051956176758e-01) (4, 1.01387925446033477783e-01) (5, -1.58748269081115722656e+00) (6, -4.46838349103927612305e-01) (7, -4.17846560478210449219e-01) (8, 3.44649672508239746094e-01) (0, -7.74800300598144531250e-01) (1, -6.52963668107986450195e-02) (2, 1.82037368416786193848e-01) (3, -3.72061729431152343750e-01) (4, 3.30982536077499389648e-01) (5, -2.10816025733947753906e+00) (6, -5.71800231933593750000e-01) (7, -4.10387575626373291016e-01) (8, 5.40901362895965576172e-01) (0, -5.48442304134368896484e-01) (1, -1.89007803797721862793e-01) (2, -1.08776502311229705811e-01) (3, -3.26233744621276855469e-01) (4, 1.38500452041625976562e-01) (5, -1.44331395626068115234e+00) (6, -4.62145000696182250977e-01) (7, -4.21337544918060302734e-01) (8, 2.43405669927597045898e-01) (0, -4.69747245311737060547e-01) (1, -2.51758843660354614258e-01) (2, -9.99776199460029602051e-02) (3, -2.13744550943374633789e-01) (4, -2.06504873931407928467e-02) (5, -1.12081778049468994141e+00) (6, -4.49258208274841308594e-01) (7, -4.48352664709091186523e-01) (8, -2.61050602421164512634e-03) (0, -5.42281866073608398438e-01) (1, -6.88867792487144470215e-02) (2, 8.07660818099975585938e-02) (3, -2.66740709543228149414e-01) (4, 5.33877350389957427979e-02) (5, -1.72226846218109130859e+00) (6, -5.12807190418243408203e-01) (7, -4.90753173828125000000e-01) (8, 3.24591159820556640625e-01) (0, -6.96924746036529541016e-01) (1, 4.89686732180416584015e-04) (2, 2.28126212954521179199e-01) (3, -3.81104081869125366211e-01) (4, 3.85058373212814331055e-01) (5, -2.29885315895080566406e+00) (6, -6.12932860851287841797e-01) (7, -5.74738383293151855469e-01) (8, 6.37742519378662109375e-01) (0, -4.43056762218475341797e-01) (1, -1.36798545718193054199e-01) (2, -1.07729122042655944824e-01) (3, -2.83986330032348632812e-01) (4, -4.42680381238460540771e-02) (5, -9.61290836334228515625e-01) (6, -2.59882658720016479492e-01) (7, -3.70517671108245849609e-01) (8, -1.19147017598152160645e-01) (9, -3.82004678249359130859e-01) (10, -6.38111889362335205078e-01) (11, -5.75210213661193847656e-01) (12, -7.59273052215576171875e-01) (13, -5.94931542873382568359e-01) (14, -5.87957501411437988281e-01) (15, -8.22682380676269531250e-01) (16, -4.71539050340652465820e-01) (17, -4.18390691280364990234e-01) (18, -5.79184830188751220703e-01) (19, -8.88264298439025878906e-01) (20, -2.56508857011795043945e-01) (21, 6.79432094097137451172e-01) (9, -4.46590960025787353516e-01) (10, -7.25634336471557617188e-01) (11, -6.49682939052581787109e-01) (12, -8.05273175239562988281e-01) (13, -7.41764605045318603516e-01) (14, -6.05720818042755126953e-01) (15, -7.20431923866271972656e-01) (16, -5.30268907546997070312e-01) (17, -4.26280021667480468750e-01) (18, -6.24839186668395996094e-01) (19, -9.43643987178802490234e-01) (20, -2.06187471747398376465e-01) (21, 8.95562827587127685547e-01) (9, -4.77655440568923950195e-01) (10, -6.94149374961853027344e-01) (11, -4.94581162929534912109e-01) (12, -8.52673351764678955078e-01) (13, -6.31674706935882568359e-01) (14, -5.13841569423675537109e-01) (15, -7.88687944412231445312e-01) (16, -4.25719678401947021484e-01) (17, -3.13436180353164672852e-01) (18, -6.91156029701232910156e-01) (19, -9.60117042064666748047e-01) (20, -2.09142535924911499023e-01) (21, 7.46352910995483398438e-01) (9, -5.59276223182678222656e-01) (10, -7.66866564750671386719e-01) (11, -5.48550903797149658203e-01) (12, -6.96725010871887207031e-01) (13, -6.43165349960327148438e-01) (14, -5.87287366390228271484e-01) (15, -8.40757429599761962891e-01) (16, -4.58948075771331787109e-01) (17, -3.47468197345733642578e-01) (18, -6.18435025215148925781e-01) (19, -9.61619973182678222656e-01) (20, -2.53385692834854125977e-01) (21, 8.36695492267608642578e-01) (9, -4.97117877006530761719e-01) (10, -7.47677803039550781250e-01) (11, -6.13665521144866943359e-01) (12, -7.47179448604583740234e-01) (13, -7.02924907207489013672e-01) (14, -4.84383165836334228516e-01) (15, -8.53451490402221679688e-01) (16, -5.82501292228698730469e-01) (17, -3.02204847335815429688e-01) (18, -5.39067625999450683594e-01) (19, -7.65330314636230468750e-01) (20, -2.88569688796997070312e-01) (21, 7.42597877979278564453e-01) (9, -4.25282895565032958984e-01) (10, -6.22947931289672851562e-01) (11, -4.65052694082260131836e-01) (12, -6.43736660480499267578e-01) (13, -6.50468051433563232422e-01) (14, -6.13411784172058105469e-01) (15, -8.08997273445129394531e-01) (16, -4.01631683111190795898e-01) (17, -4.79176759719848632812e-01) (18, -5.26137709617614746094e-01) (19, -8.04576456546783447266e-01) (20, -3.22507292032241821289e-01) (21, 5.50096392631530761719e-01) (9, -5.31251013278961181641e-01) (10, -7.95069038867950439453e-01) (11, -4.87068235874176025391e-01) (12, -8.35156440734863281250e-01) (13, -5.48022091388702392578e-01) (14, -5.89011311531066894531e-01) (15, -8.34799349308013916016e-01) (16, -5.47616422176361083984e-01) (17, -3.29309493303298950195e-01) (18, -6.04584991931915283203e-01) (19, -9.42623913288116455078e-01) (20, -2.09929004311561584473e-01) (21, 8.34121465682983398438e-01) (9, -3.75275969505310058594e-01) (10, -6.18569612503051757812e-01) (11, -5.32841920852661132812e-01) (12, -6.69715762138366699219e-01) (13, -6.25133514404296875000e-01) (14, -5.79164743423461914062e-01) (15, -7.69099473953247070312e-01) (16, -5.40123581886291503906e-01) (17, -2.75950431823730468750e-01) (18, -5.66020071506500244141e-01) (19, -8.02172124385833740234e-01) (20, -3.81186902523040771484e-01) (21, 5.45495331287384033203e-01) (22, 2.23311638832092285156e+00) (23, 2.45014429092407226562e+00) (24, 2.33738970756530761719e+00) (25, 2.39860081672668457031e+00) (26, 2.28902173042297363281e+00) (27, 2.08165049552917480469e+00) (28, 2.40962648391723632812e+00) (29, 2.07438302040100097656e+00) (30, -4.92340803146362304688e+00)
