FANN_FLO_2.1
num_layers=4
learning_rate=0.700000
connection_rate=1.000000
network_type=0
learning_momentum=0.000000
training_algorithm=2
train_error_function=1
train_stop_function=0
cascade_output_change_fraction=0.010000
quickprop_decay=-0.000100
quickprop_mu=1.750000
rprop_increase_factor=1.200000
rprop_decrease_factor=0.500000
rprop_delta_min=0.000000
rprop_delta_max=50.000000
rprop_delta_zero=0.100000
cascade_output_stagnation_epochs=12
cascade_candidate_change_fraction=0.010000
cascade_candidate_stagnation_epochs=12
cascade_max_out_epochs=150
cascade_min_out_epochs=50
cascade_max_cand_epochs=150
cascade_min_cand_epochs=50
cascade_num_candidate_groups=2
bit_fail_limit=3.49999994039535522461e-01
cascade_candidate_limit=1.00000000000000000000e+03
cascade_weight_multiplier=4.00000005960464477539e-01
cascade_activation_functions_count=10
cascade_activation_functions=3 5 7 8 10 11 14 15 16 17 
cascade_activation_steepnesses_count=4
cascade_activation_steepnesses=2.50000000000000000000e-01 5.00000000000000000000e-01 7.50000000000000000000e-01 1.00000000000000000000e+00 
layer_sizes=9 13 9 2 
scale_included=0
neurons (num_inputs, activation_function, activation_steepness)=(0, 0, 0.00000000000000000000e+00) (0, 0, 0.00000000000000000000e+00) (0, 0, 0.00000000000000000000e+00) (0, 0, 0.00000000000000000000e+00) (0, 0, 0.00000000000000000000e+00) (0, 0, 0.00000000000000000000e+00) (0, 0, 0.00000000000000000000e+00) (0, 0, 0.00000000000000000000e+00) (0, 0, 0.00000000000000000000e+00) (9, 4, 5.00000000000000000000e-01) (9, 4, 5.00000000000000000000e-01) (9, 4, 5.00000000000000000000e-01) (9, 4, 5.00000000000000000000e-01) (9, 4, 5.00000000000000000000e-01) (9, 4, 5.00000000000000000000e-01) (9, 4, 5.00000000000000000000e-01) (9, 4, 5.00000000000000000000e-01) (9, 4, 5.00000000000000000000e-01) (9, 4, 5.00000000000000000000e-01) (9, 4, 5.00000000000000000000e-01) (9, 4, 5.00000000000000000000e-01) (0, 0, 0.00000000000000000000e+00) (13, 4, 5.00000000000000000000e-01) (13, 4, 5.00000000000000000000e-01) (13, 4, 5.00000000000000000000e-01) (13, 4, 5.00000000000000000000e-01) (13, 4, 5.00000000000000000000e-01) (13, 4, 5.00000000000000000000e-01) (13, 4, 5.00000000000000000000e-01) (13, 4, 5.00000000000000000000e-01) (0, 0, 0.00000000000000000000e+00) (9, 4, 5.00000000000000000000e-01) (0, 0, 0.00000000000000000000e+00) 
connections (connected_to_neuron, weight)=(0, 2.67503452301025390625e+00) (1, -6.73531651496887207031e-01) (2, 4.74734783172607421875e-01) (3, -5.34750223159790039062e-01) (4, -3.56771528720855712891e-01) (5, -1.82492554187774658203e-01) (6, -3.35552901029586791992e-01) (7, -4.11105364561080932617e-01) (8, -1.17431354522705078125e+00) (0, 1.42299687862396240234e+00) (1, -5.33838689327239990234e-01) (2, 3.30215036869049072266e-01) (3, -3.27711194753646850586e-01) (4, -2.35388740897178649902e-01) (5, -2.51823246479034423828e-01) (6, -3.53428155183792114258e-01) (7, -1.77888616919517517090e-01) (8, -6.98569118976593017578e-01) (0, 3.03956961631774902344e+00) (1, -8.13087821006774902344e-01) (2, 5.54887890815734863281e-01) (3, -5.52881896495819091797e-01) (4, -4.70476686954498291016e-01) (5, -2.41467222571372985840e-01) (6, -1.91911324858665466309e-01) (7, -3.79322230815887451172e-01) (8, -1.38219416141510009766e+00) (0, 1.17680573463439941406e+00) (1, -4.49491500854492187500e-01) (2, 3.35771322250366210938e-01) (3, -2.15323656797409057617e-01) (4, -1.41531303524971008301e-01) (5, -4.63033437728881835938e-01) (6, -4.07191097736358642578e-01) (7, -1.40262305736541748047e-01) (8, -5.91898858547210693359e-01) (0, 1.57623052597045898438e+00) (1, -4.21647757291793823242e-01) (2, 4.33777451515197753906e-01) (3, -2.61073380708694458008e-01) (4, -2.19905987381935119629e-01) (5, -2.41678461432456970215e-01) (6, -4.02205586433410644531e-01) (7, -2.42021381855010986328e-01) (8, -8.67351531982421875000e-01) (0, 3.89605283737182617188e+00) (1, -9.36996579170227050781e-01) (2, 6.81521534919738769531e-01) (3, -8.82397532463073730469e-01) (4, -4.23957198858261108398e-01) (5, -2.64334052801132202148e-01) (6, -2.79486656188964843750e-01) (7, -4.86921459436416625977e-01) (8, -1.81711983680725097656e+00) (0, 1.75716614723205566406e+00) (1, -6.03439211845397949219e-01) (2, 4.16188657283782958984e-01) (3, -2.43549332022666931152e-01) (4, -2.67084538936614990234e-01) (5, -3.43171298503875732422e-01) (6, -3.34816873073577880859e-01) (7, -1.85567706823348999023e-01) (8, -7.38637208938598632812e-01) (0, 2.60726976394653320312e+00) (1, -7.18181729316711425781e-01) (2, 5.24873495101928710938e-01) (3, -5.51879584789276123047e-01) (4, -3.43166679143905639648e-01) (5, -1.46303758025169372559e-01) (6, -3.14263492822647094727e-01) (7, -3.79385918378829956055e-01) (8, -1.18777549266815185547e+00) (0, 2.11849474906921386719e+00) (1, -6.48900866508483886719e-01) (2, 5.22684633731842041016e-01) (3, -5.18548488616943359375e-01) (4, -3.01195591688156127930e-01) (5, -2.35978275537490844727e-01) (6, -2.28044778108596801758e-01) (7, -3.16236883401870727539e-01) (8, -1.00132298469543457031e+00) (0, 2.51009368896484375000e+00) (1, -6.45888507366180419922e-01) (2, 3.45434457063674926758e-01) (3, -5.32867670059204101562e-01) (4, -3.72977644205093383789e-01) (5, -2.94317334890365600586e-01) (6, -1.42219886183738708496e-01) (7, -4.11358326673507690430e-01) (8, -1.05895984172821044922e+00) (0, 1.50934731960296630859e+00) (1, -4.87530261278152465820e-01) (2, 3.63156378269195556641e-01) (3, -3.04793447256088256836e-01) (4, -2.71219968795776367188e-01) (5, -2.38694161176681518555e-01) (6, -3.44275653362274169922e-01) (7, -2.78514951467514038086e-01) (8, -7.28687763214111328125e-01) (0, 2.29361295700073242188e+00) (1, -6.67495310306549072266e-01) (2, 4.71315234899520874023e-01) (3, -4.28482651710510253906e-01) (4, -2.95148521661758422852e-01) (5, -1.72249481081962585449e-01) (6, -2.64465302228927612305e-01) (7, -3.23318630456924438477e-01) (8, -1.09966778755187988281e+00) (9, -6.48748219013214111328e-01) (10, -1.90332219004631042480e-01) (11, -6.93154871463775634766e-01) (12, 2.70870625972747802734e-02) (13, -2.60348051786422729492e-01) (14, -1.11979305744171142578e+00) (15, -1.86344549059867858887e-01) (16, -6.10021173954010009766e-01) (17, -4.23051446676254272461e-01) (18, -5.97679674625396728516e-01) (19, -1.93129822611808776855e-01) (20, -4.80089128017425537109e-01) (21, 1.51277315616607666016e+00) (9, -5.41400194168090820312e-01) (10, -8.96230116486549377441e-02) (11, -7.86217272281646728516e-01) (12, -1.07420399785041809082e-01) (13, -1.42099440097808837891e-01) (14, -1.13430166244506835938e+00) (15, -2.48233035206794738770e-01) (16, -6.62960946559906005859e-01) (17, -3.94743084907531738281e-01) (18, -4.43813771009445190430e-01) (19, -1.81200101971626281738e-01) (20, -5.26640892028808593750e-01) (21, 1.41577684879302978516e+00) (9, -4.91804867982864379883e-01) (10, -2.91311740875244140625e-01) (11, -5.76134562492370605469e-01) (12, -1.74149543046951293945e-01) (13, -2.99468219280242919922e-01) (14, -9.83861327171325683594e-01) (15, -2.85140216350555419922e-01) (16, -4.52656060457229614258e-01) (17, -3.13629508018493652344e-01) (18, -4.39980894327163696289e-01) (19, -2.85346716642379760742e-01) (20, -3.97804468870162963867e-01) (21, 9.16930735111236572266e-01) (9, -5.78175783157348632812e-01) (10, -1.10990747809410095215e-01) (11, -7.06316947937011718750e-01) (12, -2.79550086706876754761e-02) (13, -2.47023716568946838379e-01) (14, -1.05532181262969970703e+00) (15, -2.61278897523880004883e-01) (16, -5.54661929607391357422e-01) (17, -4.39808398485183715820e-01) (18, -5.35755574703216552734e-01) (19, -1.84894770383834838867e-01) (20, -3.96328091621398925781e-01) (21, 1.22783041000366210938e+00) (9, -5.23378312587738037109e-01) (10, -1.99572816491127014160e-01) (11, -6.80513024330139160156e-01) (12, -2.15689484030008316040e-02) (13, -1.87935322523117065430e-01) (14, -1.00805556774139404297e+00) (15, -2.05617696046829223633e-01) (16, -5.46264410018920898438e-01) (17, -3.62318307161331176758e-01) (18, -5.68278193473815917969e-01) (19, -1.43877148628234863281e-01) (20, -5.12725591659545898438e-01) (21, 1.09458696842193603516e+00) (9, -5.26233911514282226562e-01) (10, -1.06803454458713531494e-01) (11, -7.30794072151184082031e-01) (12, -1.03324443101882934570e-01) (13, -1.62395626306533813477e-01) (14, -9.27113473415374755859e-01) (15, -3.34423452615737915039e-01) (16, -6.13104403018951416016e-01) (17, -4.11356300115585327148e-01) (18, -4.73047733306884765625e-01) (19, -2.33807995915412902832e-01) (20, -3.67752164602279663086e-01) (21, 1.05604910850524902344e+00) (9, -5.26095271110534667969e-01) (10, -2.62962192296981811523e-01) (11, -6.36719524860382080078e-01) (12, -1.53737187385559082031e-01) (13, -2.75268197059631347656e-01) (14, -9.30149912834167480469e-01) (15, -2.26100385189056396484e-01) (16, -4.42619860172271728516e-01) (17, -4.27404731512069702148e-01) (18, -4.64488476514816284180e-01) (19, -2.19371110200881958008e-01) (20, -4.86255913972854614258e-01) (21, 1.01175069808959960938e+00) (9, -6.37585222721099853516e-01) (10, -1.75203099846839904785e-01) (11, -7.83105492591857910156e-01) (12, -9.49893742799758911133e-02) (13, -2.08396375179290771484e-01) (14, -9.26781833171844482422e-01) (15, -3.02619904279708862305e-01) (16, -4.89496111869812011719e-01) (17, -4.30860817432403564453e-01) (18, -5.50185024738311767578e-01) (19, -1.73642769455909729004e-01) (20, -4.34028416872024536133e-01) (21, 1.26227414608001708984e+00) (22, -2.80786466598510742188e+00) (23, -2.74319696426391601562e+00) (24, -2.31732487678527832031e+00) (25, -2.58724570274353027344e+00) (26, -2.50067806243896484375e+00) (27, -2.45293903350830078125e+00) (28, -2.38104057312011718750e+00) (29, -2.58705115318298339844e+00) (30, 4.67385816574096679688e+00) 
