FANN_FLO_2.1
num_layers=5
learning_rate=0.700000
connection_rate=1.000000
network_type=0
learning_momentum=0.000000
training_algorithm=2
train_error_function=1
train_stop_function=0
cascade_output_change_fraction=0.010000
quickprop_decay=-0.000100
quickprop_mu=1.750000
rprop_increase_factor=1.200000
rprop_decrease_factor=0.500000
rprop_delta_min=0.000000
rprop_delta_max=50.000000
rprop_delta_zero=0.100000
cascade_output_stagnation_epochs=12
cascade_candidate_change_fraction=0.010000
cascade_candidate_stagnation_epochs=12
cascade_max_out_epochs=150
cascade_min_out_epochs=50
cascade_max_cand_epochs=150
cascade_min_cand_epochs=50
cascade_num_candidate_groups=2
bit_fail_limit=3.49999994039535522461e-01
cascade_candidate_limit=1.00000000000000000000e+03
cascade_weight_multiplier=4.00000005960464477539e-01
cascade_activation_functions_count=10
cascade_activation_functions=3 5 7 8 10 11 14 15 16 17 
cascade_activation_steepnesses_count=4
cascade_activation_steepnesses=2.50000000000000000000e-01 5.00000000000000000000e-01 7.50000000000000000000e-01 1.00000000000000000000e+00 
layer_sizes=13 17 13 9 2 
scale_included=0
neurons (num_inputs, activation_function, activation_steepness)=(0, 0, 0.00000000000000000000e+00) (0, 0, 0.00000000000000000000e+00) (0, 0, 0.00000000000000000000e+00) (0, 0, 0.00000000000000000000e+00) (0, 0, 0.00000000000000000000e+00) (0, 0, 0.00000000000000000000e+00) (0, 0, 0.00000000000000000000e+00) (0, 0, 0.00000000000000000000e+00) (0, 0, 0.00000000000000000000e+00) (0, 0, 0.00000000000000000000e+00) (0, 0, 0.00000000000000000000e+00) (0, 0, 0.00000000000000000000e+00) (0, 0, 0.00000000000000000000e+00) (13, 4, 5.00000000000000000000e-01) (13, 4, 5.00000000000000000000e-01) (13, 4, 5.00000000000000000000e-01) (13, 4, 5.00000000000000000000e-01) (13, 4, 5.00000000000000000000e-01) (13, 4, 5.00000000000000000000e-01) (13, 4, 5.00000000000000000000e-01) (13, 4, 5.00000000000000000000e-01) (13, 4, 5.00000000000000000000e-01) (13, 4, 5.00000000000000000000e-01) (13, 4, 5.00000000000000000000e-01) (13, 4, 5.00000000000000000000e-01) (13, 4, 5.00000000000000000000e-01) (13, 4, 5.00000000000000000000e-01) (13, 4, 5.00000000000000000000e-01) (13, 4, 5.00000000000000000000e-01) (0, 0, 0.00000000000000000000e+00) (17, 4, 5.00000000000000000000e-01) (17, 4, 5.00000000000000000000e-01) (17, 4, 5.00000000000000000000e-01) (17, 4, 5.00000000000000000000e-01) (17, 4, 5.00000000000000000000e-01) (17, 4, 5.00000000000000000000e-01) (17, 4, 5.00000000000000000000e-01) (17, 4, 5.00000000000000000000e-01) (17, 4, 5.00000000000000000000e-01) (17, 4, 5.00000000000000000000e-01) (17, 4, 5.00000000000000000000e-01) (17, 4, 5.00000000000000000000e-01) (0, 0, 0.00000000000000000000e+00) (13, 4, 5.00000000000000000000e-01) (13, 4, 5.00000000000000000000e-01) (13, 4, 5.00000000000000000000e-01) (13, 4, 5.00000000000000000000e-01) (13, 4, 5.00000000000000000000e-01) (13, 4, 5.00000000000000000000e-01) (13, 4, 5.00000000000000000000e-01) (13, 4, 5.00000000000000000000e-01) (0, 0, 0.00000000000000000000e+00) (9, 4, 5.00000000000000000000e-01) (0, 0, 0.00000000000000000000e+00) 
connections (connected_to_neuron, weight)=(0, 6.64547562599182128906e-01) (1, -1.09803408384323120117e-01) (2, 1.96993097662925720215e-01) (3, 7.94169083237648010254e-02) (4, 1.90050378441810607910e-02) (5, 1.65234021842479705811e-02) (6, 1.60385817289352416992e-02) (7, 2.80517488718032836914e-02) (8, -4.91574741899967193604e-02) (9, -4.06320951879024505615e-02) (10, -1.12452529370784759521e-01) (11, -1.26604944467544555664e-01) (12, -1.05418279767036437988e-01) (0, 6.91235840320587158203e-01) (1, -4.70714047551155090332e-02) (2, 1.93055659532546997070e-01) (3, 1.64225205779075622559e-01) (4, -6.11478202044963836670e-02) (5, -1.21733263134956359863e-01) (6, -1.28402233123779296875e-01) (7, -9.19290110468864440918e-02) (8, 7.17878118157386779785e-02) (9, -1.55569136142730712891e-01) (10, -8.91083665192127227783e-03) (11, -1.18541978299617767334e-02) (12, 4.18077334761619567871e-02) (0, 5.14493525028228759766e-01) (1, -2.51312199980020523071e-02) (2, 1.82882994413375854492e-01) (3, -7.19808414578437805176e-03) (4, 8.41646566987037658691e-02) (5, -1.15051813423633575439e-01) (6, -1.09015084803104400635e-01) (7, 1.54738929122686386108e-02) (8, 3.63592132925987243652e-02) (9, 3.76203246414661407471e-02) (10, -1.30927618592977523804e-02) (11, -1.98645293712615966797e-02) (12, -1.65669191628694534302e-02) (0, 7.36855328083038330078e-01) (1, -1.13273181021213531494e-01) (2, 2.16695547103881835938e-01) (3, 1.81810691952705383301e-01) (4, -4.01031151413917541504e-02) (5, -1.65347114205360412598e-01) (6, -9.60788354277610778809e-02) (7, 7.41267874836921691895e-02) (8, 8.07153806090354919434e-02) (9, -1.99257973581552505493e-02) (10, -9.36763510107994079590e-02) (11, -1.30283713340759277344e-01) (12, -4.67587308958172798157e-03) (0, 7.05088138580322265625e-01) (1, -1.00303217768669128418e-01) (2, 2.01509177684783935547e-01) (3, 1.69486388564109802246e-01) (4, -7.56523013114929199219e-02) (5, -9.82126221060752868652e-02) (6, -1.16186805069446563721e-01) (7, 4.78979460895061492920e-02) (8, -8.12533404678106307983e-03) (9, -1.12662620842456817627e-01) (10, 5.78470863401889801025e-02) (11, -2.92263068258762359619e-02) (12, 1.24494982883334159851e-02) (0, 7.62946307659149169922e-01) (1, -2.83355303108692169189e-02) (2, 1.77269756793975830078e-01) (3, 3.76006998121738433838e-02) (4, -8.43918025493621826172e-02) (5, -1.61243841052055358887e-01) (6, -1.04792103171348571777e-01) (7, 5.99276646971702575684e-02) (8, -9.36409533023834228516e-02) (9, -5.17718633636832237244e-03) (10, 5.25661632418632507324e-02) (11, -6.82538449764251708984e-02) (12, -1.27500463277101516724e-02) (0, 7.46174335479736328125e-01) (1, -1.12846568226814270020e-01) (2, 2.63312071561813354492e-01) (3, -4.97233169153332710266e-03) (4, 6.86969757080078125000e-02) (5, -1.17193057667464017868e-03) (6, -1.38912513852119445801e-01) (7, -4.00218144059181213379e-02) (8, 3.67156602442264556885e-02) (9, -8.29549357295036315918e-02) (10, 1.68414432555437088013e-02) (11, -1.61092832684516906738e-01) (12, -1.32568672299385070801e-01) (0, 3.65907579660415649414e-01) (1, -5.15466965734958648682e-02) (2, 3.86646613478660583496e-02) (3, 1.28800019621849060059e-01) (4, -7.49855712056159973145e-02) (5, -7.05391913652420043945e-03) (6, -4.13504950702190399170e-02) (7, -8.21970496326684951782e-03) (8, 6.39955773949623107910e-02) (9, -9.61373373866081237793e-03) (10, -5.13168703764677047729e-03) (11, -9.33222770690917968750e-02) (12, -3.57549563050270080566e-02) (0, 4.93098407983779907227e-01) (1, 6.49664998054504394531e-02) (2, 9.59317758679389953613e-02) (3, 1.66364178061485290527e-01) (4, 2.11060363799333572388e-02) (5, -1.25502511858940124512e-01) (6, -1.03662163019180297852e-01) (7, 3.29374545253813266754e-03) (8, -7.70739540457725524902e-02) (9, -1.04832492768764495850e-01) (10, -3.05043589323759078979e-02) (11, -7.05315396189689636230e-02) (12, -2.72900294512510299683e-02) (0, 4.97851878404617309570e-01) (1, 1.60826239734888076782e-02) (2, 1.09089806675910949707e-01) (3, 8.16434528678655624390e-03) (4, 6.34582340717315673828e-02) (5, -7.72028863430023193359e-02) (6, -6.69845938682556152344e-02) (7, 8.25101062655448913574e-02) (8, -5.17305694520473480225e-02) (9, -3.95692326128482818604e-02) (10, -1.74352396279573440552e-02) (11, -1.26592097803950309753e-02) (12, 5.51233030855655670166e-02) (0, 4.94480103254318237305e-01) (1, -8.55195373296737670898e-02) (2, 1.41727536916732788086e-01) (3, 5.24177700281143188477e-02) (4, 1.02976579219102859497e-02) (5, 3.37029807269573211670e-02) (6, -9.22183394432067871094e-02) (7, 7.45797455310821533203e-02) (8, 8.85413438081741333008e-02) (9, 4.15992178022861480713e-02) (10, 7.15093687176704406738e-02) (11, -1.18781745433807373047e-01) (12, -5.07525242865085601807e-02) (0, 6.12261056900024414062e-01) (1, -8.86305123567581176758e-02) (2, 2.64115065336227416992e-01) (3, 6.54985681176185607910e-02) (4, 3.47876735031604766846e-02) (5, 9.30000841617584228516e-03) (6, -1.65410161018371582031e-01) (7, 9.42952558398246765137e-02) (8, -8.63023474812507629395e-02) (9, 1.97436399757862091064e-02) (10, -5.38271702826023101807e-02) (11, -6.01540580391883850098e-02) (12, 8.67246836423873901367e-03) (0, 6.16783976554870605469e-01) (1, -1.30921840667724609375e-01) (2, 1.28475815057754516602e-01) (3, 2.58556678891181945801e-02) (4, 7.89771080017089843750e-02) (5, -5.77791146934032440186e-02) (6, -7.51275271177291870117e-02) (7, -2.13609207421541213989e-02) (8, 8.32806974649429321289e-02) (9, -1.42684221267700195312e-01) (10, -5.30448332428932189941e-02) (11, -1.04171909391880035400e-01) (12, 4.03307862579822540283e-02) (0, 5.61782538890838623047e-01) (1, -9.88016799092292785645e-02) (2, 2.45361611247062683105e-01) (3, 6.33514672517776489258e-02) (4, 8.37130006402730941772e-03) (5, 1.59613359719514846802e-02) (6, -2.34528854489326477051e-02) (7, -1.46259209141135215759e-02) (8, -5.45055307447910308838e-02) (9, -6.12952895462512969971e-02) (10, -4.88119274377822875977e-02) (11, -9.25944969058036804199e-02) (12, -5.40846288204193115234e-02) (0, 7.90528893470764160156e-01) (1, -1.47727116942405700684e-01) (2, 2.67486274242401123047e-01) (3, 1.90780207514762878418e-01) (4, 4.60032224655151367188e-02) (5, -1.59729674458503723145e-01) (6, -3.60178090631961822510e-02) (7, -6.77887052297592163086e-02) (8, -1.36863645166158676147e-02) (9, -9.55437403172254562378e-03) (10, 7.55247427150607109070e-03) (11, -4.99481987208127975464e-03) (12, -1.34357422590255737305e-01) (0, 6.14764690399169921875e-01) (1, -1.42079845070838928223e-01) (2, 1.84562832117080688477e-01) (3, 1.62641629576683044434e-01) (4, 6.27965703606605529785e-02) (5, 4.15217224508523941040e-03) (6, -1.56328290700912475586e-01) (7, 4.96904104948043823242e-02) (8, -5.01727946102619171143e-02) (9, -2.18776296824216842651e-02) (10, 3.58566455543041229248e-03) (11, 3.22112776339054107666e-02) (12, -1.35975062847137451172e-01) (13, 2.66133278608322143555e-01) (14, 1.77357807755470275879e-01) (15, 1.34316191077232360840e-01) (16, 1.43459931015968322754e-01) (17, 2.49567687511444091797e-01) (18, 2.67028778791427612305e-01) (19, 1.76911264657974243164e-01) (20, 1.24173119664192199707e-01) (21, 2.00089141726493835449e-01) (22, 1.01092197000980377197e-01) (23, 2.31116890907287597656e-01) (24, 2.14428573846817016602e-01) (25, 1.81594446301460266113e-01) (26, 1.51848971843719482422e-01) (27, 2.46128827333450317383e-01) (28, 1.51113137602806091309e-01) (29, 1.09879545867443084717e-01) (13, 2.58926063776016235352e-01) (14, 2.84645438194274902344e-01) (15, 1.25072389841079711914e-01) (16, 2.06339433789253234863e-01) (17, 2.59753853082656860352e-01) (18, 1.60359814763069152832e-01) (19, 1.82341903448104858398e-01) (20, 2.02537268400192260742e-01) (21, 6.69690445065498352051e-02) (22, 1.70062422752380371094e-01) (23, 1.77600711584091186523e-01) (24, 2.20837086439132690430e-01) (25, 1.92269429564476013184e-01) (26, 2.06819921731948852539e-01) (27, 2.41400510072708129883e-01) (28, 8.51747393608093261719e-02) (29, 4.76061962544918060303e-02) (13, 2.33311012387275695801e-01) (14, 2.52110421657562255859e-01) (15, 2.39934951066970825195e-01) (16, 1.15427486598491668701e-01) (17, 1.55272886157035827637e-01) (18, 2.35156267881393432617e-01) (19, 1.67280361056327819824e-01) (20, 5.78517541289329528809e-02) (21, 1.23044744133949279785e-01) (22, 2.04301595687866210938e-01) (23, 1.80928513407707214355e-01) (24, 2.63813287019729614258e-01) (25, 9.13649350404739379883e-02) (26, 7.21108838915824890137e-02) (27, 2.84758239984512329102e-01) (28, 1.00417353212833404541e-01) (29, 1.18551902472972869873e-01) (13, 1.34862273931503295898e-01) (14, 2.71310448646545410156e-01) (15, 1.87978550791740417480e-01) (16, 2.33694806694984436035e-01) (17, 2.58480429649353027344e-01) (18, 2.61026352643966674805e-01) (19, 1.63146093487739562988e-01) (20, 1.16280816495418548584e-01) (21, 1.64671629667282104492e-01) (22, 2.14783206582069396973e-01) (23, 1.02038733661174774170e-01) (24, 1.09326146543025970459e-01) (25, 2.48632311820983886719e-01) (26, 1.45906895399093627930e-01) (27, 3.06163191795349121094e-01) (28, 2.24483072757720947266e-01) (29, 8.41021612286567687988e-02) (13, 1.22578330338001251221e-01) (14, 1.46756008267402648926e-01) (15, 1.08494125306606292725e-01) (16, 2.04589933156967163086e-01) (17, 1.87534749507904052734e-01) (18, 2.33295693993568420410e-01) (19, 1.64921492338180541992e-01) (20, 4.07212227582931518555e-02) (21, 1.73979833722114562988e-01) (22, 1.18395917117595672607e-01) (23, 9.52853858470916748047e-02) (24, 1.68199688196182250977e-01) (25, 1.62253409624099731445e-01) (26, 1.99311256408691406250e-01) (27, 2.79951095581054687500e-01) (28, 1.71533808112144470215e-01) (29, 1.42825677990913391113e-01) (13, 1.71525120735168457031e-01) (14, 1.59640654921531677246e-01) (15, 1.12165741622447967529e-01) (16, 2.62844890356063842773e-01) (17, 2.73808717727661132812e-01) (18, 2.94223606586456298828e-01) (19, 2.51374632120132446289e-01) (20, 6.48496672511100769043e-02) (21, 9.69142317771911621094e-02) (22, 1.74096465110778808594e-01) (23, 2.07689136266708374023e-01) (24, 1.24667398631572723389e-01) (25, 1.57550811767578125000e-01) (26, 1.13331437110900878906e-01) (27, 1.81201875209808349609e-01) (28, 1.98413237929344177246e-01) (29, 1.19309701025485992432e-01) (13, 1.79480776190757751465e-01) (14, 2.48987078666687011719e-01) (15, 2.09193676710128784180e-01) (16, 2.29054793715476989746e-01) (17, 2.46924549341201782227e-01) (18, 1.59045264124870300293e-01) (19, 2.73466765880584716797e-01) (20, 1.89823612570762634277e-01) (21, 1.76560029387474060059e-01) (22, 6.66312053799629211426e-02) (23, 1.36975720524787902832e-01) (24, 1.27008974552154541016e-01) (25, 1.53764411807060241699e-01) (26, 2.17487499117851257324e-01) (27, 2.38926067948341369629e-01) (28, 2.15380117297172546387e-01) (29, 1.69900562614202499390e-02) (13, 1.45467579364776611328e-01) (14, 2.00349792838096618652e-01) (15, 2.34060257673263549805e-01) (16, 2.89858400821685791016e-01) (17, 2.31728166341781616211e-01) (18, 1.15885309875011444092e-01) (19, 2.00778320431709289551e-01) (20, 9.59795117378234863281e-02) (21, 9.91143137216567993164e-02) (22, 1.98044329881668090820e-01) (23, 1.68127343058586120605e-01) (24, 1.60826683044433593750e-01) (25, 1.20805345475673675537e-01) (26, 2.46022015810012817383e-01) (27, 3.11722159385681152344e-01) (28, 1.01951152086257934570e-01) (29, 1.78250536322593688965e-01) (13, 2.05266475677490234375e-01) (14, 2.81488984823226928711e-01) (15, 7.76374191045761108398e-02) (16, 2.00810223817825317383e-01) (17, 2.63664990663528442383e-01) (18, 2.63104379177093505859e-01) (19, 2.33892381191253662109e-01) (20, 8.79089608788490295410e-02) (21, 8.00221860408782958984e-02) (22, 6.00146465003490447998e-02) (23, 9.20461192727088928223e-02) (24, 2.33055427670478820801e-01) (25, 2.27618426084518432617e-01) (26, 1.16141811013221740723e-01) (27, 1.38217300176620483398e-01) (28, 1.50471463799476623535e-01) (29, 7.03308880329132080078e-02) (13, 2.84587442874908447266e-01) (14, 1.06263846158981323242e-01) (15, 1.10286794602870941162e-01) (16, 1.98883235454559326172e-01) (17, 1.87127515673637390137e-01) (18, 2.11244225502014160156e-01) (19, 1.54791757464408874512e-01) (20, 3.36680486798286437988e-02) (21, 5.30302673578262329102e-02) (22, 1.38561114668846130371e-01) (23, 5.82980215549468994141e-02) (24, 2.68651664257049560547e-01) (25, 1.84366926550865173340e-01) (26, 2.28610366582870483398e-01) (27, 2.33846113085746765137e-01) (28, 1.88003480434417724609e-01) (29, 2.22941145300865173340e-01) (13, 8.45884829759597778320e-02) (14, 1.66522487998008728027e-01) (15, 1.99290037155151367188e-01) (16, 2.34268382191658020020e-01) (17, 2.34138920903205871582e-01) (18, 2.83117175102233886719e-01) (19, 2.48760521411895751953e-01) (20, 8.82877677213400602341e-04) (21, 1.94289073348045349121e-01) (22, 1.32084563374519348145e-01) (23, 9.40162762999534606934e-02) (24, 2.35481142997741699219e-01) (25, 2.29694887995719909668e-01) (26, 1.50489747524261474609e-01) (27, 2.83965945243835449219e-01) (28, 2.59341299533843994141e-01) (29, 1.63386523723602294922e-01) (13, 1.51909276843070983887e-01) (14, 1.82276993989944458008e-01) (15, 1.26841023564338684082e-01) (16, 2.21368521451950073242e-01) (17, 1.97316423058509826660e-01) (18, 1.82407096028327941895e-01) (19, 3.15027505159378051758e-01) (20, 1.29160806536674499512e-01) (21, 1.28460988402366638184e-01) (22, 1.57843008637428283691e-01) (23, 1.36559084057807922363e-01) (24, 2.67389893531799316406e-01) (25, 9.07723456621170043945e-02) (26, 1.45497485995292663574e-01) (27, 3.21371316909790039062e-01) (28, 1.87306374311447143555e-01) (29, 7.16212242841720581055e-02) (30, -5.17252743244171142578e-01) (31, -5.78604161739349365234e-01) (32, -5.67532241344451904297e-01) (33, -6.17628812789916992188e-01) (34, -4.91925865411758422852e-01) (35, -4.10504251718521118164e-01) (36, -4.70468848943710327148e-01) (37, -5.36165893077850341797e-01) (38, -4.20528620481491088867e-01) (39, -4.73636537790298461914e-01) (40, -6.76156163215637207031e-01) (41, -4.89641726016998291016e-01) (42, -7.56265521049499511719e-01) (30, -5.00506401062011718750e-01) (31, -4.74857568740844726562e-01) (32, -4.33449000120162963867e-01) (33, -6.73905611038208007812e-01) (34, -4.81387823820114135742e-01) (35, -5.21103203296661376953e-01) (36, -5.44131696224212646484e-01) (37, -5.87807714939117431641e-01) (38, -5.86571991443634033203e-01) (39, -4.35841321945190429688e-01) (40, -5.15442728996276855469e-01) (41, -5.44988274574279785156e-01) (42, -7.32391655445098876953e-01) (30, -6.22986614704132080078e-01) (31, -4.50634032487869262695e-01) (32, -4.21909570693969726562e-01) (33, -5.73539495468139648438e-01) (34, -5.27156949043273925781e-01) (35, -4.98676210641860961914e-01) (36, -4.73135381937026977539e-01) (37, -5.90037167072296142578e-01) (38, -4.15350943803787231445e-01) (39, -5.86317718029022216797e-01) (40, -6.37005746364593505859e-01) (41, -4.87271785736083984375e-01) (42, -7.33741521835327148438e-01) (30, -4.56639915704727172852e-01) (31, -5.93970835208892822266e-01) (32, -4.91322964429855346680e-01) (33, -5.75265944004058837891e-01) (34, -3.95774215459823608398e-01) (35, -5.23975551128387451172e-01) (36, -5.41875660419464111328e-01) (37, -5.02983093261718750000e-01) (38, -4.66756075620651245117e-01) (39, -4.21832174062728881836e-01) (40, -6.37922525405883789062e-01) (41, -5.86844265460968017578e-01) (42, -8.08905720710754394531e-01) (30, -5.63793659210205078125e-01) (31, -5.97148716449737548828e-01) (32, -5.28472542762756347656e-01) (33, -5.10905563831329345703e-01) (34, -5.29800713062286376953e-01) (35, -5.18226921558380126953e-01) (36, -4.88983213901519775391e-01) (37, -4.56076681613922119141e-01) (38, -3.98977011442184448242e-01) (39, -4.43662315607070922852e-01) (40, -5.99038600921630859375e-01) (41, -4.82016533613204956055e-01) (42, -8.61764073371887207031e-01) (30, -5.98533689975738525391e-01) (31, -4.88158017396926879883e-01) (32, -5.59576690196990966797e-01) (33, -5.21333754062652587891e-01) (34, -4.82475459575653076172e-01) (35, -5.60705482959747314453e-01) (36, -6.20521485805511474609e-01) (37, -4.57652747631072998047e-01) (38, -4.18952792882919311523e-01) (39, -4.25180733203887939453e-01) (40, -6.05636537075042724609e-01) (41, -5.48473000526428222656e-01) (42, -7.34365582466125488281e-01) (30, -6.25406920909881591797e-01) (31, -5.58244407176971435547e-01) (32, -3.97708564996719360352e-01) (33, -6.25209033489227294922e-01) (34, -3.92465561628341674805e-01) (35, -5.18130838871002197266e-01) (36, -5.40357410907745361328e-01) (37, -6.13655328750610351562e-01) (38, -5.25157034397125244141e-01) (39, -4.89192962646484375000e-01) (40, -5.66107392311096191406e-01) (41, -4.13367539644241333008e-01) (42, -7.52567887306213378906e-01) (30, -5.39605677127838134766e-01) (31, -4.65294629335403442383e-01) (32, -4.10124361515045166016e-01) (33, -6.45894467830657958984e-01) (34, -3.70673686265945434570e-01) (35, -5.64901173114776611328e-01) (36, -4.51271355152130126953e-01) (37, -6.21721804141998291016e-01) (38, -3.80894988775253295898e-01) (39, -5.51911652088165283203e-01) (40, -6.15980088710784912109e-01) (41, -5.99619567394256591797e-01) (42, -8.09903800487518310547e-01) (43, -2.66209661960601806641e-01) (44, -2.69807875156402587891e-01) (45, -2.66452193260192871094e-01) (46, -2.70615696907043457031e-01) (47, -2.61038511991500854492e-01) (48, -2.65825897455215454102e-01) (49, -2.71154701709747314453e-01) (50, -2.84571409225463867188e-01) (51, 4.18391853570938110352e-01) 
