FANN_FLO_2.1
num_layers=4
learning_rate=0.700000
connection_rate=1.000000
network_type=0
learning_momentum=0.000000
training_algorithm=2
train_error_function=1
train_stop_function=0
cascade_output_change_fraction=0.010000
quickprop_decay=-0.000100
quickprop_mu=1.750000
rprop_increase_factor=1.200000
rprop_decrease_factor=0.500000
rprop_delta_min=0.000000
rprop_delta_max=50.000000
rprop_delta_zero=0.100000
cascade_output_stagnation_epochs=12
cascade_candidate_change_fraction=0.010000
cascade_candidate_stagnation_epochs=12
cascade_max_out_epochs=150
cascade_min_out_epochs=50
cascade_max_cand_epochs=150
cascade_min_cand_epochs=50
cascade_num_candidate_groups=2
bit_fail_limit=3.49999994039535522461e-01
cascade_candidate_limit=1.00000000000000000000e+03
cascade_weight_multiplier=4.00000005960464477539e-01
cascade_activation_functions_count=10
cascade_activation_functions=3 5 7 8 10 11 14 15 16 17
cascade_activation_steepnesses_count=4
cascade_activation_steepnesses=2.50000000000000000000e-01 5.00000000000000000000e-01 7.50000000000000000000e-01 1.00000000000000000000e+00
layer_sizes=9 13 9 2
scale_included=0
neurons (num_inputs, activation_function, activation_steepness)=(0, 0, 0.00000000000000000000e+00) (0, 0, 0.00000000000000000000e+00) (0, 0, 0.00000000000000000000e+00) (0, 0, 0.00000000000000000000e+00) (0, 0, 0.00000000000000000000e+00) (0, 0, 0.00000000000000000000e+00) (0, 0, 0.00000000000000000000e+00) (0, 0, 0.00000000000000000000e+00) (0, 0, 0.00000000000000000000e+00) (9, 3, 5.00000000000000000000e-01) (9, 3, 5.00000000000000000000e-01) (9, 3, 5.00000000000000000000e-01) (9, 3, 5.00000000000000000000e-01) (9, 3, 5.00000000000000000000e-01) (9, 3, 5.00000000000000000000e-01) (9, 3, 5.00000000000000000000e-01) (9, 3, 5.00000000000000000000e-01) (9, 3, 5.00000000000000000000e-01) (9, 3, 5.00000000000000000000e-01) (9, 3, 5.00000000000000000000e-01) (9, 3, 5.00000000000000000000e-01) (0, 3, 0.00000000000000000000e+00) (13, 3, 5.00000000000000000000e-01) (13, 3, 5.00000000000000000000e-01) (13, 3, 5.00000000000000000000e-01) (13, 3, 5.00000000000000000000e-01) (13, 3, 5.00000000000000000000e-01) (13, 3, 5.00000000000000000000e-01) (13, 3, 5.00000000000000000000e-01) (13, 3, 5.00000000000000000000e-01) (0, 3, 0.00000000000000000000e+00) (9, 3, 5.00000000000000000000e-01) (0, 3, 0.00000000000000000000e+00)
connections (connected_to_neuron, weight)=(0, -5.16068279743194580078e-01) (1, -1.76143899559974670410e-01) (2, -7.30155184864997863770e-02) (3, -2.77067303657531738281e-01) (4, 7.78198465704917907715e-02) (5, -1.56256341934204101562e+00) (6, -4.92688864469528198242e-01) (7, -4.16971176862716674805e-01) (8, 2.75574654340744018555e-01) (0, -5.05476534366607666016e-01) (1, -1.08642563223838806152e-01) (2, -4.55235652625560760498e-02) (3, -4.15848612785339355469e-01) (4, 2.01870232820510864258e-01) (5, -1.61344087123870849609e+00) (6, -4.55313533544540405273e-01) (7, -5.08451879024505615234e-01) (8, 3.03628414869308471680e-01) (0, -6.98988020420074462891e-01) (1, 1.85427851974964141846e-02) (2, 1.69133797287940979004e-01) (3, -4.33329999446868896484e-01) (4, 2.72464960813522338867e-01) (5, -2.19093608856201171875e+00) (6, -5.74388265609741210938e-01) (7, -4.42641824483871459961e-01) (8, 5.98977684974670410156e-01) (0, -6.16902351379394531250e-01) (1, -1.78848862648010253906e-01) (2, -2.80361436307430267334e-02) (3, -3.98537039756774902344e-01) (4, 7.89732635021209716797e-02) (5, -1.53368926048278808594e+00) (6, -5.14491319656372070312e-01) (7, -3.37402522563934326172e-01) (8, 2.90747821331024169922e-01) (0, -6.04723870754241943359e-01) (1, -1.11282117664813995361e-01) (2, 1.21180467307567596436e-01) (3, -3.38270574808120727539e-01) (4, 2.58571922779083251953e-01) (5, -2.02042102813720703125e+00) (6, -5.22933900356292724609e-01) (7, -4.77899253368377685547e-01) (8, 5.00498890876770019531e-01) (0, -6.05566501617431640625e-01) (1, -2.41637483239173889160e-01) (2, 6.71462863683700561523e-02) (3, -4.13193196058273315430e-01) (4, 1.26935228705406188965e-01) (5, -1.36992573738098144531e+00) (6, -4.36990708112716674805e-01) (7, -3.61786931753158569336e-01) (8, 7.43132308125495910645e-02) (0, -5.70387601852416992188e-01) (1, -1.53794705867767333984e-01) (2, 9.59479734301567077637e-02) (3, -3.12661260366439819336e-01) (4, 2.30414211750030517578e-01) (5, -1.77349603176116943359e+00) (6, -5.84134042263031005859e-01) (7, -3.67051512002944946289e-01) (8, 2.55656570196151733398e-01) (0, -5.74001789093017578125e-01) (1, -2.01467171311378479004e-01) (2, 4.12528403103351593018e-02) (3, -2.99398243427276611328e-01) (4, 2.88913697004318237305e-01) (5, -1.68789696693420410156e+00) (6, -5.83367645740509033203e-01) (7, -4.57660883665084838867e-01) (8, 2.53678619861602783203e-01) (0, -6.48741185665130615234e-01) (1, -1.76320657134056091309e-01) (2, 1.07199586927890777588e-01) (3, -3.88388723134994506836e-01) (4, 2.11272388696670532227e-01) (5, -1.70701313018798828125e+00) (6, -5.64134061336517333984e-01) (7, -4.44158911705017089844e-01) (8, 3.26981127262115478516e-01) (0, -6.50634229183197021484e-01) (1, -2.07556672394275665283e-02) (2, -2.50356756150722503662e-02) (3, -3.72539162635803222656e-01) (4, 2.20359578728675842285e-01) (5, -1.59501671791076660156e+00) (6, -5.46503007411956787109e-01) (7, -4.49583023786544799805e-01) (8, 2.35056877136230468750e-01) (0, -6.05434596538543701172e-01) (1, -1.49912908673286437988e-01) (2, -1.81458089500665664673e-02) (3, -2.69591867923736572266e-01) (4, 8.61808285117149353027e-02) (5, -1.56704330444335937500e+00) (6, -5.27782738208770751953e-01) (7, -3.44979315996170043945e-01) (8, 2.11439326405525207520e-01) (0, -5.97378253936767578125e-01) (1, -6.06260113418102264404e-02) (2, 1.02378472685813903809e-01) (3, -2.58236348628997802734e-01) (4, 1.42333194613456726074e-01) (5, -1.74407124519348144531e+00) (6, -5.34513771533966064453e-01) (7, -5.02709507942199707031e-01) (8, 2.77900248765945434570e-01) (9, -5.86756706237792968750e-01) (10, -5.96643626689910888672e-01) (11, -7.62134850025177001953e-01) (12, -5.28267204761505126953e-01) (13, -7.22808599472045898438e-01) (14, -4.82317239046096801758e-01) (15, -5.70183813571929931641e-01) (16, -5.67604064941406250000e-01) (17, -6.69275104999542236328e-01) (18, -6.09113514423370361328e-01) (19, -5.22970438003540039062e-01) (20, -5.89022576808929443359e-01) (21, 6.75587534904479980469e-01) (9, -4.47642147541046142578e-01) (10, -4.87121134996414184570e-01) (11, -9.29354429244995117188e-01) (12, -5.62309086322784423828e-01) (13, -8.45845401287078857422e-01) (14, -5.27925550937652587891e-01) (15, -6.47918581962585449219e-01) (16, -5.46404957771301269531e-01) (17, -6.37031137943267822266e-01) (18, -6.51069402694702148438e-01) (19, -5.53631663322448730469e-01) (20, -6.23877286911010742188e-01) (21, 8.16440343856811523438e-01) (9, -4.17753756046295166016e-01) (10, -6.07385575771331787109e-01) (11, -8.66889119148254394531e-01) (12, -5.79813361167907714844e-01) (13, -7.14086234569549560547e-01) (14, -4.82992619276046752930e-01) (15, -5.63278019428253173828e-01) (16, -6.33753240108489990234e-01) (17, -6.76477372646331787109e-01) (18, -6.13571047782897949219e-01) (19, -4.81160849332809448242e-01) (20, -6.30326986312866210938e-01) (21, 7.15067744255065917969e-01) (9, -6.05907142162322998047e-01) (10, -5.62767088413238525391e-01) (11, -7.24719882011413574219e-01) (12, -4.97913330793380737305e-01) (13, -7.46772110462188720703e-01) (14, -4.40358757972717285156e-01) (15, -5.77209293842315673828e-01) (16, -6.13317787647247314453e-01) (17, -6.55128061771392822266e-01) (18, -5.20997703075408935547e-01) (19, -5.10355472564697265625e-01) (20, -6.94639742374420166016e-01) (21, 6.52277350425720214844e-01) (9, -5.52189826965332031250e-01) (10, -5.90940952301025390625e-01) (11, -8.03745985031127929688e-01) (12, -5.10462880134582519531e-01) (13, -6.57195091247558593750e-01) (14, -5.15001356601715087891e-01) (15, -7.50251412391662597656e-01) (16, -5.16346156597137451172e-01) (17, -5.90982437133789062500e-01) (18, -6.13839685916900634766e-01) (19, -5.98401725292205810547e-01) (20, -5.96540808677673339844e-01) (21, 7.15553224086761474609e-01) (9, -5.06749391555786132812e-01) (10, -4.71029549837112426758e-01) (11, -7.47169911861419677734e-01) (12, -5.02007663249969482422e-01) (13, -7.79316782951354980469e-01) (14, -4.28585499525070190430e-01) (15, -6.45394742488861083984e-01) (16, -6.83356702327728271484e-01) (17, -5.64081549644470214844e-01) (18, -5.08991718292236328125e-01) (19, -4.72311049699783325195e-01) (20, -5.57858884334564208984e-01) (21, 5.22814154624938964844e-01) (9, -5.87594270706176757812e-01) (10, -5.67687988281250000000e-01) (11, -8.78159105777740478516e-01) (12, -6.00053489208221435547e-01) (13, -7.62395262718200683594e-01) (14, -4.65557187795639038086e-01) (15, -5.81694722175598144531e-01) (16, -7.19297528266906738281e-01) (17, -6.35358512401580810547e-01) (18, -5.49793004989624023438e-01) (19, -5.85591554641723632812e-01) (20, -5.91313362121582031250e-01) (21, 8.36587369441986083984e-01) (9, -6.02000653743743896484e-01) (10, -6.65965557098388671875e-01) (11, -8.73012959957122802734e-01) (12, -5.12899875640869140625e-01) (13, -6.82556390762329101562e-01) (14, -4.37988579273223876953e-01) (15, -6.02961540222167968750e-01) (16, -6.32845282554626464844e-01) (17, -6.28694117069244384766e-01) (18, -5.38104057312011718750e-01) (19, -6.36762022972106933594e-01) (20, -7.11723804473876953125e-01) (21, 8.34627687931060791016e-01) (22, 2.24385309219360351562e+00) (23, 2.43054246902465820312e+00) (24, 2.31583619117736816406e+00) (25, 2.21864581108093261719e+00) (26, 2.29337120056152343750e+00) (27, 2.11033344268798828125e+00) (28, 2.41042733192443847656e+00) (29, 2.40020537376403808594e+00) (30, -4.91940307617187500000e+00)
