FANN_FLO_2.1
num_layers=4
learning_rate=0.700000
connection_rate=1.000000
network_type=0
learning_momentum=0.000000
training_algorithm=2
train_error_function=1
train_stop_function=0
cascade_output_change_fraction=0.010000
quickprop_decay=-0.000100
quickprop_mu=1.750000
rprop_increase_factor=1.200000
rprop_decrease_factor=0.500000
rprop_delta_min=0.000000
rprop_delta_max=50.000000
rprop_delta_zero=0.100000
cascade_output_stagnation_epochs=12
cascade_candidate_change_fraction=0.010000
cascade_candidate_stagnation_epochs=12
cascade_max_out_epochs=150
cascade_min_out_epochs=50
cascade_max_cand_epochs=150
cascade_min_cand_epochs=50
cascade_num_candidate_groups=2
bit_fail_limit=3.49999994039535522461e-01
cascade_candidate_limit=1.00000000000000000000e+03
cascade_weight_multiplier=4.00000005960464477539e-01
cascade_activation_functions_count=10
cascade_activation_functions=3 5 7 8 10 11 14 15 16 17
cascade_activation_steepnesses_count=4
cascade_activation_steepnesses=2.50000000000000000000e-01 5.00000000000000000000e-01 7.50000000000000000000e-01 1.00000000000000000000e+00
layer_sizes=9 13 9 2
scale_included=0
neurons (num_inputs, activation_function, activation_steepness)=(0, 0, 0.00000000000000000000e+00) (0, 0, 0.00000000000000000000e+00) (0, 0, 0.00000000000000000000e+00) (0, 0, 0.00000000000000000000e+00) (0, 0, 0.00000000000000000000e+00) (0, 0, 0.00000000000000000000e+00) (0, 0, 0.00000000000000000000e+00) (0, 0, 0.00000000000000000000e+00) (0, 0, 0.00000000000000000000e+00) (9, 3, 5.00000000000000000000e-01) (9, 3, 5.00000000000000000000e-01) (9, 3, 5.00000000000000000000e-01) (9, 3, 5.00000000000000000000e-01) (9, 3, 5.00000000000000000000e-01) (9, 3, 5.00000000000000000000e-01) (9, 3, 5.00000000000000000000e-01) (9, 3, 5.00000000000000000000e-01) (9, 3, 5.00000000000000000000e-01) (9, 3, 5.00000000000000000000e-01) (9, 3, 5.00000000000000000000e-01) (9, 3, 5.00000000000000000000e-01) (0, 3, 0.00000000000000000000e+00) (13, 3, 5.00000000000000000000e-01) (13, 3, 5.00000000000000000000e-01) (13, 3, 5.00000000000000000000e-01) (13, 3, 5.00000000000000000000e-01) (13, 3, 5.00000000000000000000e-01) (13, 3, 5.00000000000000000000e-01) (13, 3, 5.00000000000000000000e-01) (13, 3, 5.00000000000000000000e-01) (0, 3, 0.00000000000000000000e+00) (9, 3, 5.00000000000000000000e-01) (0, 3, 0.00000000000000000000e+00)
connections (connected_to_neuron, weight)=(0, -6.20622217655181884766e-01) (1, -1.30695402622222900391e-01) (2, 8.94733220338821411133e-02) (3, -2.79433012008666992188e-01) (4, 2.16068089008331298828e-01) (5, -1.63286650180816650391e+00) (6, -6.24468266963958740234e-01) (7, -4.03932601213455200195e-01) (8, 1.63446649909019470215e-01) (0, -6.97359502315521240234e-01) (1, -2.18337103724479675293e-01) (2, 1.61328136920928955078e-01) (3, -3.57336640357971191406e-01) (4, 2.90474921464920043945e-01) (5, -1.77241945266723632812e+00) (6, -5.65693378448486328125e-01) (7, -4.05342459678649902344e-01) (8, 3.16684454679489135742e-01) (0, -4.60835367441177368164e-01) (1, -2.64093160629272460938e-01) (2, -9.42119359970092773438e-02) (3, -3.05728137493133544922e-01) (4, 3.69340777397155761719e-02) (5, -1.28805220127105712891e+00) (6, -4.52022075653076171875e-01) (7, -4.29360747337341308594e-01) (8, 8.56079459190368652344e-02) (0, -6.38368725776672363281e-01) (1, -2.05938771367073059082e-01) (2, 1.31146505475044250488e-01) (3, -4.18299943208694458008e-01) (4, 2.28989586234092712402e-01) (5, -1.67794442176818847656e+00) (6, -4.51902925968170166016e-01) (7, -4.27886903285980224609e-01) (8, 2.82937586307525634766e-01) (0, -5.42150914669036865234e-01) (1, -1.17426477372646331787e-01) (2, -5.25740943849086761475e-02) (3, -2.82855898141860961914e-01) (4, 2.11181417107582092285e-01) (5, -1.54709756374359130859e+00) (6, -4.56219136714935302734e-01) (7, -4.41960513591766357422e-01) (8, 1.57167345285415649414e-01) (0, -6.53486311435699462891e-01) (1, -1.29531726241111755371e-01) (2, 5.45226894319057464600e-02) (3, -3.19653272628784179688e-01) (4, 1.24448984861373901367e-01) (5, -1.39449119567871093750e+00) (6, -4.48147773742675781250e-01) (7, -4.90530371665954589844e-01) (8, 1.07255868613719940186e-01) (0, -5.63410758972167968750e-01) (1, -1.06569141149520874023e-01) (2, 2.16929223388433456421e-02) (3, -2.82405048608779907227e-01) (4, 4.42127287387847900391e-02) (5, -1.48410689830780029297e+00) (6, -4.91172820329666137695e-01) (7, -4.95276272296905517578e-01) (8, 1.76249414682388305664e-01) (0, -5.41227400302886962891e-01) (1, -2.06102669239044189453e-01) (2, 1.70570403337478637695e-01) (3, -3.77451896667480468750e-01) (4, 2.55407094955444335938e-01) (5, -1.80980229377746582031e+00) (6, -5.79517543315887451172e-01) (7, -5.06199300289154052734e-01) (8, 3.29538047313690185547e-01) (0, -6.82326018810272216797e-01) (1, -6.97410702705383300781e-02) (2, 9.96067896485328674316e-02) (3, -3.42356383800506591797e-01) (4, 3.28434824943542480469e-01) (5, -1.97060668468475341797e+00) (6, -5.90542376041412353516e-01) (7, -4.87580627202987670898e-01) (8, 4.67655062675476074219e-01) (0, -6.67418479919433593750e-01) (1, -1.98075801134109497070e-01) (2, -9.04744025319814682007e-03) (3, -3.27391058206558227539e-01) (4, 2.60723441839218139648e-01) (5, -1.71999585628509521484e+00) (6, -6.19696378707885742188e-01) (7, -4.68898504972457885742e-01) (8, 4.23202455043792724609e-01) (0, -5.50821840763092041016e-01) (1, -3.52249853312969207764e-02) (2, -2.48076543211936950684e-02) (3, -4.14011538028717041016e-01) (4, 2.72480964660644531250e-01) (5, -1.73776531219482421875e+00) (6, -4.46809351444244384766e-01) (7, -4.94515597820281982422e-01) (8, 3.34647566080093383789e-01) (0, -6.61893665790557861328e-01) (1, -1.34283840656280517578e-01) (2, 1.10185414552688598633e-01) (3, -3.33436518907546997070e-01) (4, 8.62134099006652832031e-02) (5, -1.64890444278717041016e+00) (6, -6.03778421878814697266e-01) (7, -4.07535225152969360352e-01) (8, 2.90324717760086059570e-01) (9, -5.73426485061645507812e-01) (10, -6.95713102817535400391e-01) (11, -4.91223812103271484375e-01) (12, -6.53597712516784667969e-01) (13, -5.17099976539611816406e-01) (14, -5.28836071491241455078e-01) (15, -5.27597784996032714844e-01) (16, -6.95196986198425292969e-01) (17, -8.00532996654510498047e-01) (18, -6.82314395904541015625e-01) (19, -6.24210417270660400391e-01) (20, -5.77177166938781738281e-01) (21, 7.43094623088836669922e-01) (9, -5.98636806011199951172e-01) (10, -6.00350320339202880859e-01) (11, -4.62439715862274169922e-01) (12, -5.97654342651367187500e-01) (13, -5.08626937866210937500e-01) (14, -5.04805743694305419922e-01) (15, -5.41581034660339355469e-01) (16, -5.59160232543945312500e-01) (17, -7.55867123603820800781e-01) (18, -5.83370327949523925781e-01) (19, -6.20360612869262695312e-01) (20, -6.66740953922271728516e-01) (21, 5.56522011756896972656e-01) (9, -5.73108673095703125000e-01) (10, -6.28141760826110839844e-01) (11, -4.79485929012298583984e-01) (12, -7.00008392333984375000e-01) (13, -6.12425684928894042969e-01) (14, -4.89353686571121215820e-01) (15, -5.44143617153167724609e-01) (16, -6.92521929740905761719e-01) (17, -6.69034838676452636719e-01) (18, -7.45078563690185546875e-01) (19, -5.91236829757690429688e-01) (20, -6.63414120674133300781e-01) (21, 7.40734934806823730469e-01) (9, -5.02084016799926757812e-01) (10, -6.72003388404846191406e-01) (11, -3.77560049295425415039e-01) (12, -6.62871003150939941406e-01) (13, -5.34649252891540527344e-01) (14, -6.05856359004974365234e-01) (15, -4.39722657203674316406e-01) (16, -7.73967742919921875000e-01) (17, -7.66809046268463134766e-01) (18, -6.70456707477569580078e-01) (19, -6.46436274051666259766e-01) (20, -5.81960380077362060547e-01) (21, 6.85280859470367431641e-01) (9, -5.24608910083770751953e-01) (10, -6.85905754566192626953e-01) (11, -4.14350956678390502930e-01) (12, -5.90467035770416259766e-01) (13, -5.64258098602294921875e-01) (14, -4.04420793056488037109e-01) (15, -5.49470782279968261719e-01) (16, -6.12286567687988281250e-01) (17, -7.93046176433563232422e-01) (18, -6.15388154983520507812e-01) (19, -6.55497431755065917969e-01) (20, -5.93347311019897460938e-01) (21, 5.69033622741699218750e-01) (9, -6.78931653499603271484e-01) (10, -6.62730515003204345703e-01) (11, -4.30094271898269653320e-01) (12, -6.45723402500152587891e-01) (13, -4.87758427858352661133e-01) (14, -5.37796378135681152344e-01) (15, -4.69516694545745849609e-01) (16, -6.28103315830230712891e-01) (17, -6.56138539314270019531e-01) (18, -6.33819460868835449219e-01) (19, -5.94626426696777343750e-01) (20, -5.51036179065704345703e-01) (21, 5.46809852123260498047e-01) (9, -6.34373545646667480469e-01) (10, -6.60498499870300292969e-01) (11, -4.97739642858505249023e-01) (12, -5.18337965011596679688e-01) (13, -5.13961851596832275391e-01) (14, -4.43992763757705688477e-01) (15, -5.79106569290161132812e-01) (16, -7.03137934207916259766e-01) (17, -7.16553568840026855469e-01) (18, -5.94757199287414550781e-01) (19, -6.83708727359771728516e-01) (20, -5.38357913494110107422e-01) (21, 6.01072669029235839844e-01) (9, -6.03518009185791015625e-01) (10, -6.47624552249908447266e-01) (11, -3.88638943433761596680e-01) (12, -5.26571333408355712891e-01) (13, -5.40367186069488525391e-01) (14, -4.18776124715805053711e-01) (15, -5.30165910720825195312e-01) (16, -6.82057976722717285156e-01) (17, -7.23640143871307373047e-01) (18, -6.53982102870941162109e-01) (19, -5.39148330688476562500e-01) (20, -6.20040535926818847656e-01) (21, 5.03093957901000976562e-01) (22, 2.35632300376892089844e+00) (23, 2.15604209899902343750e+00) (24, 2.36013174057006835938e+00) (25, 2.32873678207397460938e+00) (26, 2.21158528327941894531e+00) (27, 2.14977002143859863281e+00) (28, 2.19937324523925781250e+00) (29, 2.13175034523010253906e+00) (30, -4.61952733993530273438e+00)
