FANN_FLO_2.1
num_layers=4
learning_rate=0.700000
connection_rate=1.000000
network_type=0
learning_momentum=0.000000
training_algorithm=2
train_error_function=1
train_stop_function=0
cascade_output_change_fraction=0.010000
quickprop_decay=-0.000100
quickprop_mu=1.750000
rprop_increase_factor=1.200000
rprop_decrease_factor=0.500000
rprop_delta_min=0.000000
rprop_delta_max=50.000000
rprop_delta_zero=0.100000
cascade_output_stagnation_epochs=12
cascade_candidate_change_fraction=0.010000
cascade_candidate_stagnation_epochs=12
cascade_max_out_epochs=150
cascade_min_out_epochs=50
cascade_max_cand_epochs=150
cascade_min_cand_epochs=50
cascade_num_candidate_groups=2
bit_fail_limit=3.49999994039535522461e-01
cascade_candidate_limit=1.00000000000000000000e+03
cascade_weight_multiplier=4.00000005960464477539e-01
cascade_activation_functions_count=10
cascade_activation_functions=3 5 7 8 10 11 14 15 16 17
cascade_activation_steepnesses_count=4
cascade_activation_steepnesses=2.50000000000000000000e-01 5.00000000000000000000e-01 7.50000000000000000000e-01 1.00000000000000000000e+00
layer_sizes=9 13 9 2
scale_included=0
neurons (num_inputs, activation_function, activation_steepness)=(0, 0, 0.00000000000000000000e+00) (0, 0, 0.00000000000000000000e+00) (0, 0, 0.00000000000000000000e+00) (0, 0, 0.00000000000000000000e+00) (0, 0, 0.00000000000000000000e+00) (0, 0, 0.00000000000000000000e+00) (0, 0, 0.00000000000000000000e+00) (0, 0, 0.00000000000000000000e+00) (0, 0, 0.00000000000000000000e+00) (9, 3, 5.00000000000000000000e-01) (9, 3, 5.00000000000000000000e-01) (9, 3, 5.00000000000000000000e-01) (9, 3, 5.00000000000000000000e-01) (9, 3, 5.00000000000000000000e-01) (9, 3, 5.00000000000000000000e-01) (9, 3, 5.00000000000000000000e-01) (9, 3, 5.00000000000000000000e-01) (9, 3, 5.00000000000000000000e-01) (9, 3, 5.00000000000000000000e-01) (9, 3, 5.00000000000000000000e-01) (9, 3, 5.00000000000000000000e-01) (0, 3, 0.00000000000000000000e+00) (13, 3, 5.00000000000000000000e-01) (13, 3, 5.00000000000000000000e-01) (13, 3, 5.00000000000000000000e-01) (13, 3, 5.00000000000000000000e-01) (13, 3, 5.00000000000000000000e-01) (13, 3, 5.00000000000000000000e-01) (13, 3, 5.00000000000000000000e-01) (13, 3, 5.00000000000000000000e-01) (0, 3, 0.00000000000000000000e+00) (9, 3, 5.00000000000000000000e-01) (0, 3, 0.00000000000000000000e+00)
connections (connected_to_neuron, weight)=(0, -7.13740408420562744141e-01) (1, -9.21631157398223876953e-02) (2, 1.17369480431079864502e-01) (3, -2.90515094995498657227e-01) (4, 1.28516674041748046875e-01) (5, -1.63130474090576171875e+00) (6, -5.88277101516723632812e-01) (7, -4.29963946342468261719e-01) (8, 2.36697554588317871094e-01) (0, -6.22285366058349609375e-01) (1, -1.98409304022789001465e-01) (2, 2.34667193144559860229e-02) (3, -3.05127620697021484375e-01) (4, 1.71416267752647399902e-01) (5, -1.52812051773071289062e+00) (6, -4.12238836288452148438e-01) (7, -3.92538517713546752930e-01) (8, 1.80559098720550537109e-01) (0, -5.53871631622314453125e-01) (1, -2.40344122052192687988e-01) (2, -8.92375186085700988770e-02) (3, -2.66724944114685058594e-01) (4, 1.06233753263950347900e-01) (5, -1.44991588592529296875e+00) (6, -4.61697131395339965820e-01) (7, -4.00789618492126464844e-01) (8, 2.19239383935928344727e-01) (0, -8.15599858760833740234e-01) (1, -3.32109406590461730957e-02) (2, 2.17103838920593261719e-01) (3, -4.12888020277023315430e-01) (4, 4.02633279561996459961e-01) (5, -2.16426753997802734375e+00) (6, -6.53770446777343750000e-01) (7, -4.90011572837829589844e-01) (8, 5.74775218963623046875e-01) (0, -6.51079058647155761719e-01) (1, -1.16615183651447296143e-01) (2, -4.86786710098385810852e-03) (3, -3.24295341968536376953e-01) (4, 2.14765697717666625977e-01) (5, -1.52828788757324218750e+00) (6, -5.34188866615295410156e-01) (7, -4.34745550155639648438e-01) (8, 1.93602085113525390625e-01) (0, -6.33836686611175537109e-01) (1, -1.34289160370826721191e-01) (2, 5.27272112667560577393e-02) (3, -2.40771070122718811035e-01) (4, 3.48421692848205566406e-01) (5, -2.02446293830871582031e+00) (6, -6.21798515319824218750e-01) (7, -4.60834652185440063477e-01) (8, 4.81949746608734130859e-01) (0, -5.73253929615020751953e-01) (1, -4.02912572026252746582e-02) (2, -4.09497832879424095154e-03) (3, -3.42173427343368530273e-01) (4, 2.98379719257354736328e-01) (5, -1.83730351924896240234e+00) (6, -5.35254955291748046875e-01) (7, -4.89821344614028930664e-01) (8, 3.75508964061737060547e-01) (0, -4.83687669038772583008e-01) (1, -1.31093576550483703613e-01) (2, 7.08018336445093154907e-03) (3, -2.56938666105270385742e-01) (4, 1.84895411133766174316e-01) (5, -1.59211969375610351562e+00) (6, -4.90138471126556396484e-01) (7, -4.60805565118789672852e-01) (8, 1.40601053833961486816e-01) (0, -6.83481752872467041016e-01) (1, -1.72273293137550354004e-01) (2, 3.18759195506572723389e-02) (3, -3.26380699872970581055e-01) (4, 4.59606535732746124268e-02) (5, -1.53186547756195068359e+00) (6, -4.64342027902603149414e-01) (7, -3.37102741003036499023e-01) (8, 2.48782455921173095703e-01) (0, -5.38408637046813964844e-01) (1, -2.47918471693992614746e-01) (2, -1.05876781046390533447e-01) (3, -3.49147439002990722656e-01) (4, 1.70059427618980407715e-01) (5, -1.43875682353973388672e+00) (6, -4.42528009414672851562e-01) (7, -4.79331791400909423828e-01) (8, 2.68564343452453613281e-01) (0, -5.79150855541229248047e-01) (1, -1.06966249644756317139e-01) (2, 8.49105603992938995361e-03) (3, -3.17557334899902343750e-01) (4, 1.98918759822845458984e-01) (5, -1.68420350551605224609e+00) (6, -5.95832109451293945312e-01) (7, -4.91876125335693359375e-01) (8, 3.11295479536056518555e-01) (0, -6.57830774784088134766e-01) (1, -7.37578719854354858398e-02) (2, 1.54282003641128540039e-01) (3, -3.46756577491760253906e-01) (4, 2.78156697750091552734e-01) (5, -1.83597278594970703125e+00) (6, -4.24354910850524902344e-01) (7, -4.94488924741744995117e-01) (8, 3.11137497425079345703e-01) (9, -5.29927134513854980469e-01) (10, -4.93514090776443481445e-01) (11, -5.85512161254882812500e-01) (12, -8.43483269214630126953e-01) (13, -5.48341572284698486328e-01) (14, -7.88501441478729248047e-01) (15, -6.92198514938354492188e-01) (16, -4.67943042516708374023e-01) (17, -6.18001461029052734375e-01) (18, -5.07140159606933593750e-01) (19, -5.66676437854766845703e-01) (20, -6.92593872547149658203e-01) (21, 7.59380877017974853516e-01) (9, -6.17423832416534423828e-01) (10, -4.55877512693405151367e-01) (11, -4.94256108999252319336e-01) (12, -7.09380209445953369141e-01) (13, -5.72786867618560791016e-01) (14, -7.42036461830139160156e-01) (15, -5.72062909603118896484e-01) (16, -5.21415710449218750000e-01) (17, -4.72519367933273315430e-01) (18, -5.70393860340118408203e-01) (19, -6.45447373390197753906e-01) (20, -6.34720683097839355469e-01) (21, 5.88144421577453613281e-01) (9, -5.01945078372955322266e-01) (10, -5.02319157123565673828e-01) (11, -5.18048703670501708984e-01) (12, -8.85703146457672119141e-01) (13, -4.85740184783935546875e-01) (14, -7.76097536087036132812e-01) (15, -6.08196377754211425781e-01) (16, -4.66608434915542602539e-01) (17, -5.19546270370483398438e-01) (18, -5.31450390815734863281e-01) (19, -6.51482224464416503906e-01) (20, -5.52657544612884521484e-01) (21, 6.03532314300537109375e-01) (9, -6.70739293098449707031e-01) (10, -6.05075359344482421875e-01) (11, -4.60619002580642700195e-01) (12, -8.59342753887176513672e-01) (13, -5.37351429462432861328e-01) (14, -8.53053510189056396484e-01) (15, -7.23830044269561767578e-01) (16, -6.30755245685577392578e-01) (17, -6.33519530296325683594e-01) (18, -4.14936482906341552734e-01) (19, -5.91108858585357666016e-01) (20, -8.00490975379943847656e-01) (21, 9.74899768829345703125e-01) (9, -5.95381140708923339844e-01) (10, -6.12672746181488037109e-01) (11, -4.56028610467910766602e-01) (12, -9.27155613899230957031e-01) (13, -5.17219066619873046875e-01) (14, -7.24037170410156250000e-01) (15, -6.54103755950927734375e-01) (16, -6.39833509922027587891e-01) (17, -4.97296094894409179688e-01) (18, -4.81210112571716308594e-01) (19, -6.30023837089538574219e-01) (20, -6.88165366649627685547e-01) (21, 8.06679785251617431641e-01) (9, -6.78694725036621093750e-01) (10, -4.64048266410827636719e-01) (11, -4.53796893358230590820e-01) (12, -9.17435765266418457031e-01) (13, -6.19091629981994628906e-01) (14, -8.34540903568267822266e-01) (15, -6.90754652023315429688e-01) (16, -6.39934360980987548828e-01) (17, -5.06846010684967041016e-01) (18, -5.56971132755279541016e-01) (19, -6.28967583179473876953e-01) (20, -7.19290554523468017578e-01) (21, 9.47813987731933593750e-01) (9, -5.51681041717529296875e-01) (10, -5.72471380233764648438e-01) (11, -5.23321747779846191406e-01) (12, -7.11489856243133544922e-01) (13, -4.48746383190155029297e-01) (14, -5.85658311843872070312e-01) (15, -7.27180778980255126953e-01) (16, -4.61701750755310058594e-01) (17, -5.97412705421447753906e-01) (18, -4.21340644359588623047e-01) (19, -5.38292169570922851562e-01) (20, -5.22158443927764892578e-01) (21, 4.10896152257919311523e-01) (9, -5.69938480854034423828e-01) (10, -5.01770496368408203125e-01) (11, -4.65039104223251342773e-01) (12, -8.52911889553070068359e-01) (13, -5.93335807323455810547e-01) (14, -6.53189539909362792969e-01) (15, -5.44439494609832763672e-01) (16, -4.38705295324325561523e-01) (17, -4.71272140741348266602e-01) (18, -5.54064333438873291016e-01) (19, -6.67851328849792480469e-01) (20, -6.90452933311462402344e-01) (21, 5.97783327102661132812e-01) (22, 2.34928965568542480469e+00) (23, 2.15691351890563964844e+00) (24, 2.19679713249206542969e+00) (25, 2.58452486991882324219e+00) (26, 2.40790247917175292969e+00) (27, 2.53073549270629882812e+00) (28, 1.99312460422515869141e+00) (29, 2.17517590522766113281e+00) (30, -4.91587066650390625000e+00)
